{'W1': array([[  5.65089549,  12.26444476,   2.28327546,  -7.28572809,
         -5.46889324,   0.51787835, -10.65904537,   0.90714295],
       [  4.34306676,   3.64534402,   0.56004657,  -3.8284493 ,
         -1.75615232,   1.49346104,   1.69155684,  27.83480038],
       [ 13.64867021,   9.71138669,   5.02820642,   0.22344768,
          8.8704754 ,   2.28188522,  10.93788553,  -0.1823283 ],
       [  7.89803483,   7.57095328,   4.03308416,  -0.19529499,
         -4.46193202,   0.34473957,  -8.3710333 ,   3.14890658],
       [ 10.42478865,  -0.64978502,   5.09083719,  -0.14309369,
          1.24890766,   3.81519957,  -9.47054983,  14.85722732],
       [ -0.4660177 ,   1.03083957,   0.13301091,   2.09707244,
         -3.85400933,   1.80151942,   3.93768969,  31.82733077],
       [  7.20927666,  -0.59223863,   0.18565762,   2.52655892,
         -2.92970173,   1.89543387,   2.09640617,  22.05380526],
       [  4.86086523,   0.94090551,  -0.10961473,   3.15361347,
         -2.22935057,   3.58832212,   4.20812606,  32.62528484],
       [  9.26519234,   5.76900829,  -6.7778702 , -18.27491401,
          6.22667231,  11.29094927,   2.38540512,   1.05526176],
       [ -5.1473905 ,  -5.23191362,   1.63258353,   4.48432761,
          3.70194932,  -8.63402421,   0.919479  ,  29.30766393]]), 'b1': array([[ 1.99045513],
       [ 1.79958815],
       [ 0.38554984],
       [-1.13004366],
       [ 2.93404377],
       [ 4.42937221],
       [ 3.37171889],
       [ 3.98865711],
       [-7.14224818],
       [ 5.05963406]]), 'W2': array([[10.6321175 , 10.39740257, 18.53819257,  6.32870102,  6.78850786,
        14.03296709,  5.64736938, 14.25003664, 16.82324058, 13.07482762]]), 'b2': array([[-33.37777873]])}